{
    "syrusakbary": {
        "p_n": 2.198493834416767,
        "f_b": -0.6043994207660086,
        "u_d": -17.497928132069507,
        "p": 9.24319946428884,
        "n": 7.044705629872074,
        "f": 7.841752836697453,
        "b": 8.446152257463462,
        "u": -17.497928132069507,
        "d": 0
    },
    "jhgg": {
        "p_n": 2.331924860077388,
        "f_b": -0.5060229666250535,
        "u_d": -17.48395858141024,
        "p": 9.288477546806334,
        "n": 6.956552686728946,
        "f": 7.869503633455114,
        "b": 8.375526600080168,
        "u": -17.48395858141024,
        "d": 0
    },
    "Globegitter": {
        "p_n": 2.4206162499389787,
        "f_b": -0.4447250569154395,
        "u_d": -17.859917721366813,
        "p": 9.274770572290032,
        "n": 6.854154322351054,
        "f": 7.842099918862823,
        "b": 8.286824975778263,
        "u": 0,
        "d": 17.859917721366813
    },
    "adamcharnock": {
        "p_n": 2.9339141815591923,
        "f_b": -0.4763075387334519,
        "u_d": -17.51741783491441,
        "p": 9.463351713892045,
        "n": 6.529437532332853,
        "f": 7.758240853745723,
        "b": 8.234548392479175,
        "u": 0,
        "d": 17.51741783491441
    },
    "mjtamlyn": {
        "p_n": 2.340788126211483,
        "f_b": -0.7196360718110419,
        "u_d": -17.497433781311067,
        "p": 9.411164954153232,
        "n": 7.070376827941749,
        "f": 7.88095285514197,
        "b": 8.600588926953012,
        "u": -17.497433781311067,
        "d": 0
    },
    "jkimbo": {
        "p_n": 2.4160385871184804,
        "f_b": -0.5836834769096182,
        "u_d": -17.493016454782385,
        "p": 9.234756950445778,
        "n": 6.818718363327298,
        "f": 7.734895918431729,
        "b": 8.318579395341347,
        "u": -17.493016454782385,
        "d": 0
    },
    "ekampf": {
        "p_n": 2.276598746893842,
        "f_b": -0.6805222471654515,
        "u_d": -17.48973787192695,
        "p": 9.140689072583383,
        "n": 6.864090325689541,
        "f": 7.662128575553736,
        "b": 8.342650822719188,
        "u": -17.48973787192695,
        "d": 0
    },
    "Vir-Cotto": {
        "p_n": 2.397980659529461,
        "f_b": -0.5295500095478598,
        "u_d": -17.36709480318533,
        "p": 9.653888031485232,
        "n": 7.255907371955772,
        "f": 8.190122696946572,
        "b": 8.719672706494432,
        "u": 0,
        "d": 17.36709480318533
    },
    "yfilali": {
        "p_n": 2.241746713948176,
        "f_b": -0.920559151991748,
        "u_d": -17.453772342762285,
        "p": 9.261228666433409,
        "n": 7.019481952485233,
        "f": 7.680075733463447,
        "b": 8.600634885455195,
        "u": -17.453772342762285,
        "d": 0
    },
    "mixxorz": {
        "p_n": 3.1949983616320186,
        "f_b": 0.033601356473467625,
        "u_d": -17.77730079419558,
        "p": 9.495456489197611,
        "n": 6.300458127565593,
        "f": 7.914757986618336,
        "b": 7.881156630144869,
        "u": 0,
        "d": 17.77730079419558
    },
    "ProjectCheshire": {
        "p_n": 2.6620126843833045,
        "f_b": -0.7790810945925024,
        "u_d": -17.489340772745365,
        "p": 9.017277750905855,
        "n": 6.35526506652255,
        "f": 7.296730861417952,
        "b": 8.075811956010455,
        "u": -17.489340772745365,
        "d": 0
    },
    "defrex": {
        "p_n": 2.0400735909295484,
        "f_b": -0.5674499042391439,
        "u_d": -17.48576333503874,
        "p": 9.4512741295283,
        "n": 7.411200538598752,
        "f": 8.147512381943955,
        "b": 8.714962286183098,
        "u": -17.48576333503874,
        "d": 0
    },
    "mickeyinfoshan": {
        "p_n": 2.9400830792468646,
        "f_b": -0.07224850272748995,
        "u_d": -17.01925324379929,
        "p": 8.94432604701478,
        "n": 6.004242967767915,
        "f": 7.438160256027603,
        "b": 7.5104087587550925,
        "u": 0,
        "d": 17.01925324379929
    },
    "varunarora": {
        "p_n": 2.1133725239887475,
        "f_b": -0.17672415138414976,
        "u_d": -17.484403737975196,
        "p": 9.188603696203392,
        "n": 7.075231172214645,
        "f": 8.043555358516944,
        "b": 8.220279509901093,
        "u": -17.484403737975196,
        "d": 0
    },
    "Mhs-220": {
        "p_n": 1.8980590266064112,
        "f_b": -0.43228516919279514,
        "u_d": -16.542704321137496,
        "p": 8.854728267998675,
        "n": 6.956669241392264,
        "f": 7.689556170099072,
        "b": 8.121841339291867,
        "u": 0,
        "d": 16.542704321137496
    },
    "gwind": {
        "p_n": 2.9339810807752773,
        "f_b": -0.755679061168431,
        "u_d": -17.446243824291038,
        "p": 9.240878275558384,
        "n": 6.306897194783106,
        "f": 7.3960482045865295,
        "b": 8.15172726575496,
        "u": -17.446243824291038,
        "d": 0
    },
    "jameswyse": {
        "p_n": 2.938093737600637,
        "f_b": -0.7169890852329086,
        "u_d": -17.46452726560778,
        "p": 9.39669033218151,
        "n": 6.458596594580873,
        "f": 7.5691489207647376,
        "b": 8.286138005997646,
        "u": -17.46452726560778,
        "d": 0
    },
    "sgtsquiggs": {
        "p_n": 3.107274253443469,
        "f_b": 0.0484387211399131,
        "u_d": -17.572933975519064,
        "p": 9.206957715195754,
        "n": 6.099683461752285,
        "f": 7.677539949043976,
        "b": 7.629101227904063,
        "u": 0,
        "d": 17.572933975519064
    },
    "Lucretiel": {
        "p_n": 3.0065300490727527,
        "f_b": -0.9788052813264336,
        "u_d": -17.01534907932789,
        "p": 9.304984981984953,
        "n": 6.2984549329122,
        "f": 7.312317316785361,
        "b": 8.291122598111794,
        "u": 0,
        "d": 17.01534907932789
    },
    "coveralls": {
        "p_n": 1.9864181250794708,
        "f_b": 0.795555145816305,
        "u_d": -17.489851865577474,
        "p": 9.014899023000568,
        "n": 7.0284808979210975,
        "f": 8.419467533368985,
        "b": 7.62391238755268,
        "u": -17.489851865577474,
        "d": 0
    },
    "prokofiev": {
        "p_n": 2.3392945614604743,
        "f_b": -0.5341674646786991,
        "u_d": -17.481182068666893,
        "p": 9.333285636788457,
        "n": 6.993991075327982,
        "f": 7.89655462371887,
        "b": 8.43072208839757,
        "u": -17.481182068666893,
        "d": 0
    },
    "gcheshkov": {
        "p_n": 2.2120407626365424,
        "f_b": 0.13695085312418698,
        "u_d": -17.487410376749985,
        "p": 9.251660427643603,
        "n": 7.039619665007061,
        "f": 8.214115472887425,
        "b": 8.077164619763238,
        "u": -17.487410376749985,
        "d": 0
    },
    "stefanfoulis": {
        "p_n": 2.7191124735437384,
        "f_b": -0.2845798191022748,
        "u_d": -17.473761199448813,
        "p": 9.449106290479744,
        "n": 6.729993816936005,
        "f": 7.947260144156736,
        "b": 8.231839963259011,
        "u": -17.473761199448813,
        "d": 0
    },
    "patrick91": {
        "p_n": 2.3191353492599465,
        "f_b": 0.12019934083361328,
        "u_d": -17.194678363952683,
        "p": 9.44224425509758,
        "n": 7.123108905837633,
        "f": 8.342776250884413,
        "b": 8.2225769100508,
        "u": 0,
        "d": 17.194678363952683
    },
    "BossGrand": {
        "p_n": 1.85616916451686,
        "f_b": -0.6679672444433988,
        "u_d": -17.474551614687485,
        "p": 9.178663608904614,
        "n": 7.322494444387754,
        "f": 7.916595404424485,
        "b": 8.584562648867884,
        "u": -17.474551614687485,
        "d": 0
    },
    "dfee": {
        "p_n": 2.6750223429190125,
        "f_b": -0.8465500714111425,
        "u_d": -17.891488746200103,
        "p": 9.126236523172004,
        "n": 6.451214180252991,
        "f": 7.3654503160069265,
        "b": 8.212000387418069,
        "u": 0,
        "d": 17.891488746200103
    },
    "danielfarrell": {
        "p_n": 3.183540956869086,
        "f_b": 0.0018710886167561114,
        "u_d": -17.452950310783386,
        "p": 9.470169763073628,
        "n": 6.286628806204542,
        "f": 7.879334828947462,
        "b": 7.877463740330706,
        "u": -17.452950310783386,
        "d": 0
    },
    "HelloYie": {
        "p_n": 2.8282203269277737,
        "f_b": 0.15401152228163184,
        "u_d": -17.456494068780916,
        "p": 9.431326508058536,
        "n": 6.603106181130762,
        "f": 8.094222105735465,
        "b": 7.940210583453833,
        "u": -17.456494068780916,
        "d": 0
    },
    "patvdleer": {
        "p_n": 2.893603443044519,
        "f_b": 0.25259335694300766,
        "u_d": -17.482883882231985,
        "p": 9.390299212076943,
        "n": 6.496695769032424,
        "f": 8.069794169026187,
        "b": 7.817200812083179,
        "u": -17.482883882231985,
        "d": 0
    },
    "crucialfelix": {
        "p_n": 2.1878407477349633,
        "f_b": -0.5287153658895978,
        "u_d": -17.479283529562665,
        "p": 9.362499429955465,
        "n": 7.174658682220501,
        "f": 8.004221373143183,
        "b": 8.532936739032781,
        "u": -17.479283529562665,
        "d": 0
    },
    "nickhudkins": {
        "p_n": 2.8951491833359446,
        "f_b": 0.23725319094528707,
        "u_d": -17.482172631844858,
        "p": 9.8540916737979,
        "n": 6.958942490461955,
        "f": 8.525143677602571,
        "b": 8.287890486657284,
        "u": -17.482172631844858,
        "d": 0
    },
    "ivlevdenis": {
        "p_n": 3.3844921730336495,
        "f_b": 1.3992369296055713,
        "u_d": -17.48998489235451,
        "p": 9.366011527127,
        "n": 5.981519354093351,
        "f": 8.373383905412961,
        "b": 6.97414697580739,
        "u": -17.48998489235451,
        "d": 0
    },
    "heyrict": {
        "p_n": 2.366643389774511,
        "f_b": -0.4677236526636346,
        "u_d": -17.447871482897693,
        "p": 9.269598648500661,
        "n": 6.90295525872615,
        "f": 7.8524151272815885,
        "b": 8.320138779945223,
        "u": -17.447871482897693,
        "d": 0
    },
    "HideoKuze": {
        "p_n": 2.362671336439865,
        "f_b": 0.05933894533062567,
        "u_d": -17.65882347336078,
        "p": 9.147417374875946,
        "n": 6.784746038436081,
        "f": 7.995751179321327,
        "b": 7.936412233990701,
        "u": 0,
        "d": 17.65882347336078
    },
    "mwilliamson-healx": {
        "p_n": 2.7334373498007913,
        "f_b": -0.5920028667200379,
        "u_d": -16.86096052640321,
        "p": 9.165718477145075,
        "n": 6.432281127344284,
        "f": 7.50299836888466,
        "b": 8.095001235604698,
        "u": 0,
        "d": 16.86096052640321
    },
    "qubitron": {
        "p_n": 2.3384150188658985,
        "f_b": -0.41742073236294264,
        "u_d": -17.05141193838633,
        "p": 9.09690993759863,
        "n": 6.7584949187327314,
        "f": 7.718992061984209,
        "b": 8.136412794347152,
        "u": 0,
        "d": 17.05141193838633
    },
    "wxkin": {
        "p_n": 2.0907015469934738,
        "f_b": -0.15063119704609207,
        "u_d": -17.489430511475593,
        "p": 9.099389597674158,
        "n": 7.008688050680684,
        "f": 7.978723225654374,
        "b": 8.129354422700466,
        "u": -17.489430511475593,
        "d": 0
    },
    "danpalmer": {
        "p_n": 2.2907933487819196,
        "f_b": -0.6035264524711526,
        "u_d": -17.48884339493137,
        "p": 9.126465123978013,
        "n": 6.835671775196094,
        "f": 7.679305223351477,
        "b": 8.28283167582263,
        "u": -17.48884339493137,
        "d": 0
    },
    "mjmonroe": {
        "p_n": 1.7486212908211556,
        "f_b": -1.1087387275218674,
        "u_d": -17.45004902693198,
        "p": 9.30169935922053,
        "n": 7.553078068399374,
        "f": 7.873019350049018,
        "b": 8.981758077570886,
        "u": -17.45004902693198,
        "d": 0
    },
    "picturedots": {
        "p_n": 2.295540111848754,
        "f_b": -0.3735324673600875,
        "u_d": -17.137055798243374,
        "p": 9.36836680359467,
        "n": 7.072826691745916,
        "f": 8.03383051399025,
        "b": 8.407362981350337,
        "u": 0,
        "d": 17.137055798243374
    },
    "JimVanEeden": {
        "p_n": 2.5022389824405282,
        "f_b": -1.1493035609743316,
        "u_d": -17.847917027087938,
        "p": 8.923543387849044,
        "n": 6.421304405408516,
        "f": 7.0977721161416145,
        "b": 8.247075677115946,
        "u": 0,
        "d": 17.847917027087938
    },
    "janhancic": {
        "p_n": 2.8129605172729644,
        "f_b": 0.03815879109693299,
        "u_d": -17.48421377889199,
        "p": 9.35773532617009,
        "n": 6.544774808897126,
        "f": 7.970334463082073,
        "b": 7.93217567198514,
        "u": -17.48421377889199,
        "d": 0
    },
    "japrogramer": {
        "p_n": 2.4174927529336783,
        "f_b": -0.310086429906999,
        "u_d": -17.489264706248036,
        "p": 9.223923642455517,
        "n": 6.806430889521839,
        "f": 7.860134051035178,
        "b": 8.170220480942177,
        "u": -17.489264706248036,
        "d": 0
    },
    "hballard": {
        "p_n": 2.2121857966444516,
        "f_b": -0.5803711340121964,
        "u_d": -17.199298189677116,
        "p": 8.983210158833755,
        "n": 6.771024362189303,
        "f": 7.586931693505431,
        "b": 8.167302827517627,
        "u": 0,
        "d": 17.199298189677116
    },
    "prokher": {
        "p_n": 2.611754399674383,
        "f_b": -0.0464550991677779,
        "u_d": -17.87746257345732,
        "p": 9.588959949807972,
        "n": 6.977205550133589,
        "f": 8.259855200386891,
        "b": 8.306310299554669,
        "u": 0,
        "d": 17.87746257345732
    },
    "ItsmeKernel": {
        "p_n": 2.599515452361368,
        "f_b": 0.06403758981044927,
        "u_d": -17.46752128139359,
        "p": 9.31492892687556,
        "n": 6.715413474514191,
        "f": 8.0471899956001,
        "b": 7.98315240578965,
        "u": -17.46752128139359,
        "d": 0
    },
    "Fohlen": {
        "p_n": 2.145335408159733,
        "f_b": -0.19880287171401,
        "u_d": -17.496013070462748,
        "p": 9.154121785729805,
        "n": 7.008786377570072,
        "f": 7.982052645792933,
        "b": 8.180855517506943,
        "u": -17.496013070462748,
        "d": 0
    },
    "sebastiandev": {
        "p_n": 2.2354604872604806,
        "f_b": -0.7639336011224804,
        "u_d": -17.495362439559187,
        "p": 9.417728501300898,
        "n": 7.182268014040417,
        "f": 7.918031457109417,
        "b": 8.681965058231897,
        "u": -17.495362439559187,
        "d": 0
    },
    "dmitry-saritasa": {
        "p_n": 2.9498885399625463,
        "f_b": -0.3208554786123532,
        "u_d": -17.49936127650501,
        "p": 9.604204242593894,
        "n": 6.654315702631348,
        "f": 7.968832233306445,
        "b": 8.289687711918798,
        "u": -17.49936127650501,
        "d": 0
    },
    "keepexploring": {
        "p_n": 2.6747440197712287,
        "f_b": -0.7454886822712439,
        "u_d": -16.7912506638453,
        "p": 9.229039144390004,
        "n": 6.5542951246187755,
        "f": 7.518922793368768,
        "b": 8.264411475640012,
        "u": 0,
        "d": 16.7912506638453
    },
    "tricoder42": {
        "p_n": 2.0855003562344034,
        "f_b": -0.3665471946582777,
        "u_d": -17.490224886205468,
        "p": 9.240441626826755,
        "n": 7.154941270592351,
        "f": 8.014417851380415,
        "b": 8.380965046038693,
        "u": -17.490224886205468,
        "d": 0
    },
    "ahopkins": {
        "p_n": 1.8186091758306642,
        "f_b": -0.627033292575442,
        "u_d": -17.48916801797697,
        "p": 8.908779732015025,
        "n": 7.090170556184361,
        "f": 7.685958497811972,
        "b": 8.312991790387414,
        "u": -17.48916801797697,
        "d": 0
    },
    "vincentfretin": {
        "p_n": 2.514634524991198,
        "f_b": -0.44710124725916334,
        "u_d": -17.089314884518647,
        "p": 8.999901964515256,
        "n": 6.485267439524058,
        "f": 7.519034078390076,
        "b": 7.9661353256492395,
        "u": 0,
        "d": 17.089314884518647
    },
    "blakegong": {
        "p_n": 2.3560487376212134,
        "f_b": -0.5395838261001895,
        "u_d": -17.491789927781856,
        "p": 9.313882455347365,
        "n": 6.957833717726151,
        "f": 7.866066173486663,
        "b": 8.405649999586853,
        "u": -17.491789927781856,
        "d": 0
    },
    "alexisrolland": {
        "p_n": 2.349690629055127,
        "f_b": -0.5122547888936575,
        "u_d": -17.860873283945057,
        "p": 8.968192928250811,
        "n": 6.618502299195685,
        "f": 7.53722021927642,
        "b": 8.049475008170077,
        "u": 0,
        "d": 17.860873283945057
    },
    "camd": {
        "p_n": 3.3146754354170476,
        "f_b": -0.30716543350103187,
        "u_d": -16.675591476370737,
        "p": 9.570510426727282,
        "n": 6.255834991310234,
        "f": 7.759589992268243,
        "b": 8.066755425769275,
        "u": 0,
        "d": 16.675591476370737
    },
    "samirbr": {
        "p_n": 2.4620905933486696,
        "f_b": -0.06369481626985163,
        "u_d": -17.499651860501785,
        "p": 9.224733988948238,
        "n": 6.762643395599568,
        "f": 7.961841284138977,
        "b": 8.025536100408829,
        "u": -17.499651860501785,
        "d": 0
    },
    "whalesalad": {
        "p_n": 2.4880050738498545,
        "f_b": -0.9378460254767216,
        "u_d": -17.893953635575233,
        "p": 8.900435902568582,
        "n": 6.412430828718727,
        "f": 7.187510352905294,
        "b": 8.125356378382016,
        "u": 0,
        "d": 17.893953635575233
    },
    "joealcorn": {
        "p_n": 2.4876047857301593,
        "f_b": -1.0277791072718045,
        "u_d": -17.216647426473713,
        "p": 8.955880999060467,
        "n": 6.4682762133303076,
        "f": 7.198189052559485,
        "b": 8.22596815983129,
        "u": 0,
        "d": 17.216647426473713
    },
    "earlgreyz": {
        "p_n": 2.734948446370108,
        "f_b": -0.15780662227903086,
        "u_d": -17.456272491047404,
        "p": 9.35698978652929,
        "n": 6.622041340159182,
        "f": 7.91061225220472,
        "b": 8.06841887448375,
        "u": -17.456272491047404,
        "d": 0
    },
    "dani0805": {
        "p_n": 1.8276149520770488,
        "f_b": -0.7716605013789533,
        "u_d": -17.960916774217267,
        "p": 8.743536895960062,
        "n": 6.9159219438830135,
        "f": 7.443899169232061,
        "b": 8.215559670611015,
        "u": 0,
        "d": 17.960916774217267
    },
    "jlward": {
        "p_n": 3.043808932241295,
        "f_b": -0.5733247789909601,
        "u_d": -16.64039244434784,
        "p": 9.24713138286448,
        "n": 6.203322450623184,
        "f": 7.438564527248351,
        "b": 8.011889306239311,
        "u": 0,
        "d": 16.64039244434784
    },
    "gonardfreeman": {
        "p_n": 2.23173740263967,
        "f_b": -0.3938528470063085,
        "u_d": -17.43230499644572,
        "p": 9.105689389496522,
        "n": 6.873951986856852,
        "f": 7.792894264673532,
        "b": 8.186747111679841,
        "u": -17.43230499644572,
        "d": 0
    },
    "mandx": {
        "p_n": 2.0353425036146184,
        "f_b": -0.8801313111780518,
        "u_d": -17.672650877741393,
        "p": 9.083000117761049,
        "n": 7.047657614146431,
        "f": 7.6252632103647136,
        "b": 8.505394521542765,
        "u": 0,
        "d": 17.672650877741393
    },
    "altaurog": {
        "p_n": 2.3783384657030027,
        "f_b": -0.7218341109016109,
        "u_d": -17.696381916898645,
        "p": 9.300618203909144,
        "n": 6.922279738206141,
        "f": 7.750531915606837,
        "b": 8.472366026508448,
        "u": 0,
        "d": 17.696381916898645
    },
    "DrPyser": {
        "p_n": 2.434729323566751,
        "f_b": -0.956298619762582,
        "u_d": -17.493635818071027,
        "p": 9.241247751967256,
        "n": 6.806518428400505,
        "f": 7.54573378030259,
        "b": 8.502032400065172,
        "u": -17.493635818071027,
        "d": 0
    },
    "luvwinnie": {
        "p_n": 1.7121219072900757,
        "f_b": -0.011087031829997152,
        "u_d": -14.760942430520537,
        "p": 8.752726788033133,
        "n": 7.040604880743057,
        "f": 7.891122318473097,
        "b": 7.902209350303094,
        "u": 0,
        "d": 14.760942430520537
    },
    "tlinhart": {
        "p_n": 1.8650139146493672,
        "f_b": -0.9218248149104298,
        "u_d": -17.472305924894286,
        "p": 8.997172473820081,
        "n": 7.132158559170714,
        "f": 7.603753109040182,
        "b": 8.525577923950612,
        "u": -17.472305924894286,
        "d": 0
    },
    "Benjaminryejones": {
        "p_n": 2.1233597135664475,
        "f_b": -0.6018728490322189,
        "u_d": -17.263271627572657,
        "p": 8.894015272156864,
        "n": 6.770655558590416,
        "f": 7.5313989908575305,
        "b": 8.13327183988975,
        "u": 0,
        "d": 17.263271627572657
    },
    "ocavue": {
        "p_n": 2.7423220805716433,
        "f_b": -0.7679007737716868,
        "u_d": -17.468012971287912,
        "p": 9.347385006900197,
        "n": 6.605062926328554,
        "f": 7.5922735797285315,
        "b": 8.360174353500218,
        "u": -17.468012971287912,
        "d": 0
    },
    "avivey": {
        "p_n": 3.0206339965755102,
        "f_b": -1.2764943042094838,
        "u_d": -17.614047993988496,
        "p": 9.035111389882967,
        "n": 6.014477393307457,
        "f": 6.88654723949047,
        "b": 8.163041543699954,
        "u": 0,
        "d": 17.614047993988496
    },
    "dan98765": {
        "p_n": 2.161174411159039,
        "f_b": -0.6399940447034673,
        "u_d": -17.883435300387177,
        "p": 9.351693074045752,
        "n": 7.190518662886713,
        "f": 7.951108846114499,
        "b": 8.591102890817966,
        "u": 0,
        "d": 17.883435300387177
    },
    "marcelombc": {
        "p_n": 1.9664178827837988,
        "f_b": -0.8323440720378175,
        "u_d": -17.4569396288004,
        "p": 8.850009310845351,
        "n": 6.883591428061552,
        "f": 7.450628333434543,
        "b": 8.28297240547236,
        "u": -17.4569396288004,
        "d": 0
    },
    "ZZHHAANNGG": {
        "p_n": 1.0230040572156875,
        "f_b": -0.892633372500363,
        "u_d": -17.478460428066576,
        "p": 8.974252446397305,
        "n": 7.951248389181617,
        "f": 8.01643373153928,
        "b": 8.909067104039643,
        "u": -17.478460428066576,
        "d": 0
    },
    "lee-flickswitch": {
        "p_n": 2.0182846523776528,
        "f_b": -0.2049386687978565,
        "u_d": -17.473616983145543,
        "p": 8.86410266661158,
        "n": 6.845818014233926,
        "f": 7.752491006023824,
        "b": 7.957429674821681,
        "u": -17.473616983145543,
        "d": 0
    },
    "antoine-gallix": {
        "p_n": 2.1457118886852626,
        "f_b": -0.758241369411131,
        "u_d": -17.48610796924939,
        "p": 9.18222429126839,
        "n": 7.036512402583128,
        "f": 7.730247662220194,
        "b": 8.488489031631325,
        "u": 0,
        "d": 17.48610796924939
    },
    "getglad": {
        "p_n": 3.4108951074542713,
        "f_b": -0.3000738460966792,
        "u_d": -17.465844911394225,
        "p": 9.555314649350661,
        "n": 6.14441954189639,
        "f": 7.699830172575186,
        "b": 7.999904018671865,
        "u": -17.465844911394225,
        "d": 0
    }
}