{
    "baotiao": {
        "p_n": 1.562782945596049,
        "f_b": 0.37606042268477324,
        "u_d": -17.46848409191514,
        "p": 9.487062420034519,
        "n": 7.92427947443847,
        "f": 8.893701158578882,
        "b": 8.517640735894108,
        "u": -17.46848409191514,
        "d": 0
    },
    "KernelMaker": {
        "p_n": 1.6118039763412426,
        "f_b": -0.045887499506497065,
        "u_d": -17.489862935058323,
        "p": 9.036481067734925,
        "n": 7.424677091393683,
        "f": 8.207635329811055,
        "b": 8.253522829317552,
        "u": -17.489862935058323,
        "d": 0
    },
    "Leviathan1995": {
        "p_n": 2.2912592335662296,
        "f_b": 0.3803484352929445,
        "u_d": -17.800036582636057,
        "p": 8.888670497518618,
        "n": 6.597411263952388,
        "f": 7.933215098381975,
        "b": 7.552866663089031,
        "u": 0,
        "d": 17.800036582636057
    },
    "heming79": {
        "p_n": 2.0627261116660804,
        "f_b": -0.08197387617247642,
        "u_d": -17.45890023109493,
        "p": 9.13094413337754,
        "n": 7.068218021711459,
        "f": 8.058594139458261,
        "b": 8.140568015630738,
        "u": -17.45890023109493,
        "d": 0
    },
    "fancy-rabbit": {
        "p_n": 2.0536903496061516,
        "f_b": -0.34593156031471395,
        "u_d": -17.675340714784795,
        "p": 8.869158511817874,
        "n": 6.815468162211722,
        "f": 7.669347556857442,
        "b": 8.015279117172156,
        "u": 0,
        "d": 17.675340714784795
    },
    "qdaxb": {
        "p_n": 2.0527062199931514,
        "f_b": 0.559065003292119,
        "u_d": -17.48673924508546,
        "p": 8.938351167393852,
        "n": 6.885644947400701,
        "f": 8.191530559043336,
        "b": 7.632465555751217,
        "u": -17.48673924508546,
        "d": 0
    },
    "toontong": {
        "p_n": 1.932744687622045,
        "f_b": -0.06374069750645006,
        "u_d": -17.479387678726358,
        "p": 9.230500608569997,
        "n": 7.297755920947952,
        "f": 8.23225791600575,
        "b": 8.2959986135122,
        "u": -17.479387678726358,
        "d": 0
    },
    "jabirukaka07": {
        "p_n": 2.413705791794312,
        "f_b": 0.7805970435416114,
        "u_d": -17.471671775182926,
        "p": 9.18625365882652,
        "n": 6.772547867032207,
        "f": 8.369699284700168,
        "b": 7.589102241158557,
        "u": -17.471671775182926,
        "d": 0
    },
    "yanjie108": {
        "p_n": 2.4003196252685663,
        "f_b": 0.5344822015044821,
        "u_d": -17.499698366691902,
        "p": 9.20581278237698,
        "n": 6.8054931571084145,
        "f": 8.272894070494939,
        "b": 7.738411868990457,
        "u": -17.499698366691902,
        "d": 0
    },
    "masterdxy": {
        "p_n": 2.3707396698218535,
        "f_b": 0.3246704859709748,
        "u_d": -17.47772101554658,
        "p": 9.37329358810618,
        "n": 7.002553918284326,
        "f": 8.35025899618074,
        "b": 8.025588510209765,
        "u": -17.47772101554658,
        "d": 0
    },
    "xtudouh": {
        "p_n": 2.0901884427134707,
        "f_b": 0.8337346559663867,
        "u_d": -17.484152174548814,
        "p": 9.021486577897523,
        "n": 6.931298135184052,
        "f": 8.393259684523981,
        "b": 7.559525028557594,
        "u": -17.484152174548814,
        "d": 0
    },
    "hea": {
        "p_n": 2.4880684948198546,
        "f_b": 1.1431690766623008,
        "u_d": -17.89097267518479,
        "p": 9.032860764501386,
        "n": 6.5447922696815315,
        "f": 8.36041105542261,
        "b": 7.217241978760309,
        "u": 0,
        "d": 17.89097267518479
    },
    "imneov": {
        "p_n": 1.5671533914133295,
        "f_b": 0.05651628248888407,
        "u_d": -17.187443372018784,
        "p": 8.825656055015388,
        "n": 7.258502663602059,
        "f": 8.070337500553165,
        "b": 8.013821218064281,
        "u": 0,
        "d": 17.187443372018784
    },
    "oooldcoder": {
        "p_n": 1.467633652571914,
        "f_b": -0.5052255677717135,
        "u_d": -17.494528837015,
        "p": 9.009251686419482,
        "n": 7.541618033847568,
        "f": 8.022822076247667,
        "b": 8.52804764401938,
        "u": -17.494528837015,
        "d": 0
    },
    "yanglfyangl1978": {
        "p_n": 2.096428375771321,
        "f_b": 0.41405696375504064,
        "u_d": -17.477379688503774,
        "p": 9.438409312900044,
        "n": 7.341980937128723,
        "f": 8.597223606891903,
        "b": 8.183166643136863,
        "u": -17.477379688503774,
        "d": 0
    },
    "Arthur-Shi": {
        "p_n": 1.8459921270834254,
        "f_b": 0.20645163793225407,
        "u_d": -17.49369422154565,
        "p": 8.845951649593033,
        "n": 6.999959522509608,
        "f": 8.026181405017448,
        "b": 7.819729767085194,
        "u": -17.49369422154565,
        "d": 0
    }
}